<?xml version="1.0"?>
<opencv_storage>
<output type_id="opencv-haar-classifier">
  <size>
    24 24</size>
  <stages>
    <_>
      <trees>
        <_>
          <_>
            <feature>
              <rects>
                <_>
                  12 2 2 12 -1.</_>
                <_>
                  12 6 2 4 3.</_></rects>
              <tilted>0</tilted></feature>
            <threshold>-0.0156769808381796</threshold>
            <left_val>0.9803920984268189</left_val>
            <right_val>-0.9999969005584717</right_val></_></_></trees>
      <stage_threshold>0.9803920984268189</stage_threshold>
      <parent>-1</parent>
      <next>-1</next></_>
    <_>
      <trees>
        <_>
          <_>
            <feature>
              <rects>
                <_>
                  4 18 5 6 -1.</_>
                <_>
                  4 21 5 3 2.</_></rects>
              <tilted>0</tilted></feature>
            <threshold>-0.0151035496965051</threshold>
            <left_val>0.9238095283508301</left_val>
            <right_val>-0.9999963045120239</right_val></_></_></trees>
      <stage_threshold>0.9238095283508301</stage_threshold>
      <parent>0</parent>
      <next>-1</next></_>
    <_>
      <trees>
        <_>
          <_>
            <feature>
              <rects>
                <_>
                  0 8 24 4 -1.</_>
                <_>
                  6 8 12 4 2.</_></rects>
              <tilted>0</tilted></feature>
            <threshold>-0.0766970813274384</threshold>
            <left_val>0.8532109260559082</left_val>
            <right_val>-0.9999964833259583</right_val></_></_></trees>
      <stage_threshold>0.8532109260559082</stage_threshold>
      <parent>1</parent>
      <next>-1</next></_>
    <_>
      <trees>
        <_>
          <_>
            <feature>
              <rects>
                <_>
                  6 6 1 6 -1.</_>
                <_>
                  6 9 1 3 2.</_></rects>
              <tilted>0</tilted></feature>
            <threshold>-3.4232910256832838e-003</threshold>
            <left_val>0.8198196887969971</left_val>
            <right_val>-0.9999967813491821</right_val></_></_></trees>
      <stage_threshold>0.8198196887969971</stage_threshold>
      <parent>2</parent>
      <next>-1</next></_>
    <_>
      <trees>
        <_>
          <_>
            <feature>
              <rects>
                <_>
                  16 5 4 9 -1.</_>
                <_>
                  16 8 4 3 3.</_></rects>
              <tilted>0</tilted></feature>
            <threshold>-0.0209107901901007</threshold>
            <left_val>0.9177216291427612</left_val>
            <right_val>-0.8516858816146851</right_val></_></_>
        <_>
          <_>
            <feature>
              <rects>
                <_>
                  2 0 16 4 -1.</_>
                <_>
                  2 1 16 2 2.</_></rects>
              <tilted>0</tilted></feature>
            <threshold>-8.0552473664283752e-003</threshold>
            <left_val>0.8775563836097717</left_val>
            <right_val>-0.8785244822502136</right_val></_></_></trees>
      <stage_threshold>0.0258705001324415</stage_threshold>
      <parent>3</parent>
      <next>-1</next></_>
    <_>
      <trees>
        <_>
          <_>
            <feature>
              <rects>
                <_>
                  4 1 16 1 -1.</_>
                <_>
                  8 1 8 1 2.</_></rects>
              <tilted>0</tilted></feature>
            <threshold>-3.9490899071097374e-003</threshold>
            <left_val>0.8419452905654907</left_val>
            <right_val>-0.8457986712455750</right_val></_></_>
        <_>
          <_>
            <feature>
              <rects>
                <_>
                  8 1 12 1 -1.</_>
                <_>
                  12 1 4 1 3.</_></rects>
              <tilted>0</tilted></feature>
            <threshold>-2.2028279490768909e-003</threshold>
            <left_val>0.9355695843696594</left_val>
            <right_val>-0.7890061140060425</right_val></_></_></trees>
      <stage_threshold>0.0529392398893833</stage_threshold>
      <parent>4</parent>
      <next>-1</next></_>
    <_>
      <trees>
        <_>
          <_>
            <feature>
              <rects>
                <_>
                  2 2 8 3 -1.</_>
                <_>
                  4 2 4 3 2.</_></rects>
              <tilted>0</tilted></feature>
            <threshold>5.1515051163733006e-003</threshold>
            <left_val>1.</left_val>
            <right_val>-0.9999979138374329</right_val></_></_></trees>
      <stage_threshold>1.</stage_threshold>
      <parent>5</parent>
      <next>-1</next></_></stages></output>
</opencv_storage>
